digraph Tree {
node [shape=box, style="filled, rounded", color="black", fontname=helvetica] ;
edge [fontname=helvetica] ;
0 [label=<Arrhythmia &le; 0.5<br/>gini = 0.444<br/>samples = 1050<br/>value = [700, 350]>, fillcolor="#e581397f"] ;
1 [label=<Contra &le; 0.711<br/>gini = 0.26<br/>samples = 819<br/>value = [693, 126]>, fillcolor="#e58139d1"] ;
0 -> 1 [labeldistance=2.5, labelangle=45, headlabel="True"] ;
2 [label=<IPSI &le; 0.82<br/>gini = 0.106<br/>samples = 641<br/>value = [605, 36]>, fillcolor="#e58139f0"] ;
1 -> 2 ;
3 [label=<Indication &le; 0.5<br/>gini = 0.057<br/>samples = 574<br/>value = [557, 17]>, fillcolor="#e58139f7"] ;
2 -> 3 ;
4 [label=<Hypertension &le; 0.5<br/>gini = 0.144<br/>samples = 179<br/>value = [165, 14]>, fillcolor="#e58139e9"] ;
3 -> 4 ;
5 [label=<gini = 0.018<br/>samples = 110<br/>value = [109, 1]>, fillcolor="#e58139fd"] ;
4 -> 5 ;
6 [label=<gini = 0.306<br/>samples = 69<br/>value = [56, 13]>, fillcolor="#e58139c4"] ;
4 -> 6 ;
7 [label=<Contra &le; 0.639<br/>gini = 0.015<br/>samples = 395<br/>value = [392, 3]>, fillcolor="#e58139fd"] ;
3 -> 7 ;
8 [label=<gini = 0.0<br/>samples = 370<br/>value = [370, 0]>, fillcolor="#e58139ff"] ;
7 -> 8 ;
9 [label=<gini = 0.211<br/>samples = 25<br/>value = [22, 3]>, fillcolor="#e58139dc"] ;
7 -> 9 ;
10 [label=<Hypertension &le; 0.5<br/>gini = 0.406<br/>samples = 67<br/>value = [48, 19]>, fillcolor="#e581399a"] ;
2 -> 10 ;
11 [label=<History &le; 0.5<br/>gini = 0.08<br/>samples = 48<br/>value = [46, 2]>, fillcolor="#e58139f4"] ;
10 -> 11 ;
12 [label=<gini = 0.042<br/>samples = 47<br/>value = [46, 1]>, fillcolor="#e58139f9"] ;
11 -> 12 ;
13 [label=<gini = 0.0<br/>samples = 1<br/>value = [0, 1]>, fillcolor="#399de5ff"] ;
11 -> 13 ;
14 [label=<Contra &le; 0.194<br/>gini = 0.188<br/>samples = 19<br/>value = [2, 17]>, fillcolor="#399de5e1"] ;
10 -> 14 ;
15 [label=<gini = 0.444<br/>samples = 3<br/>value = [2, 1]>, fillcolor="#e581397f"] ;
14 -> 15 ;
16 [label=<gini = 0.0<br/>samples = 16<br/>value = [0, 16]>, fillcolor="#399de5ff"] ;
14 -> 16 ;
17 [label=<Hypertension &le; 0.5<br/>gini = 0.5<br/>samples = 178<br/>value = [88, 90]>, fillcolor="#399de506"] ;
1 -> 17 ;
18 [label=<Contra &le; 0.861<br/>gini = 0.367<br/>samples = 99<br/>value = [75, 24]>, fillcolor="#e58139ad"] ;
17 -> 18 ;
19 [label=<gini = 0.0<br/>samples = 51<br/>value = [51, 0]>, fillcolor="#e58139ff"] ;
18 -> 19 ;
20 [label=<IPSI &le; 0.664<br/>gini = 0.5<br/>samples = 48<br/>value = [24, 24]>, fillcolor="#e5813900"] ;
18 -> 20 ;
21 [label=<gini = 0.227<br/>samples = 23<br/>value = [20, 3]>, fillcolor="#e58139d9"] ;
20 -> 21 ;
22 [label=<gini = 0.269<br/>samples = 25<br/>value = [4, 21]>, fillcolor="#399de5ce"] ;
20 -> 22 ;
23 [label=<IPSI &le; 0.469<br/>gini = 0.275<br/>samples = 79<br/>value = [13, 66]>, fillcolor="#399de5cd"] ;
17 -> 23 ;
24 [label=<Diabetes &le; 0.5<br/>gini = 0.444<br/>samples = 12<br/>value = [8, 4]>, fillcolor="#e581397f"] ;
23 -> 24 ;
25 [label=<gini = 0.0<br/>samples = 8<br/>value = [8, 0]>, fillcolor="#e58139ff"] ;
24 -> 25 ;
26 [label=<gini = 0.0<br/>samples = 4<br/>value = [0, 4]>, fillcolor="#399de5ff"] ;
24 -> 26 ;
27 [label=<Contra &le; 0.744<br/>gini = 0.138<br/>samples = 67<br/>value = [5, 62]>, fillcolor="#399de5ea"] ;
23 -> 27 ;
28 [label=<gini = 0.375<br/>samples = 16<br/>value = [4, 12]>, fillcolor="#399de5aa"] ;
27 -> 28 ;
29 [label=<gini = 0.038<br/>samples = 51<br/>value = [1, 50]>, fillcolor="#399de5fa"] ;
27 -> 29 ;
30 [label=<Contra &le; 0.361<br/>gini = 0.059<br/>samples = 231<br/>value = [7, 224]>, fillcolor="#399de5f7"] ;
0 -> 30 [labeldistance=2.5, labelangle=-45, headlabel="False"] ;
31 [label=<Indication &le; 1.0<br/>gini = 0.486<br/>samples = 12<br/>value = [5, 7]>, fillcolor="#399de549"] ;
30 -> 31 ;
32 [label=<gini = 0.0<br/>samples = 6<br/>value = [0, 6]>, fillcolor="#399de5ff"] ;
31 -> 32 ;
33 [label=<IPSI &le; 0.75<br/>gini = 0.278<br/>samples = 6<br/>value = [5, 1]>, fillcolor="#e58139cc"] ;
31 -> 33 ;
34 [label=<gini = 0.0<br/>samples = 4<br/>value = [4, 0]>, fillcolor="#e58139ff"] ;
33 -> 34 ;
35 [label=<gini = 0.5<br/>samples = 2<br/>value = [1, 1]>, fillcolor="#e5813900"] ;
33 -> 35 ;
36 [label=<Indication &le; 2.5<br/>gini = 0.018<br/>samples = 219<br/>value = [2, 217]>, fillcolor="#399de5fd"] ;
30 -> 36 ;
37 [label=<IPSI &le; 0.586<br/>gini = 0.009<br/>samples = 212<br/>value = [1, 211]>, fillcolor="#399de5fe"] ;
36 -> 37 ;
38 [label=<Hypertension &le; 0.5<br/>gini = 0.087<br/>samples = 22<br/>value = [1, 21]>, fillcolor="#399de5f3"] ;
37 -> 38 ;
39 [label=<gini = 0.5<br/>samples = 2<br/>value = [1, 1]>, fillcolor="#e5813900"] ;
38 -> 39 ;
40 [label=<gini = 0.0<br/>samples = 20<br/>value = [0, 20]>, fillcolor="#399de5ff"] ;
38 -> 40 ;
41 [label=<gini = 0.0<br/>samples = 190<br/>value = [0, 190]>, fillcolor="#399de5ff"] ;
37 -> 41 ;
42 [label=<IHD &le; 0.5<br/>gini = 0.245<br/>samples = 7<br/>value = [1, 6]>, fillcolor="#399de5d4"] ;
36 -> 42 ;
43 [label=<IPSI &le; 0.781<br/>gini = 0.5<br/>samples = 2<br/>value = [1, 1]>, fillcolor="#e5813900"] ;
42 -> 43 ;
44 [label=<gini = 0.0<br/>samples = 1<br/>value = [1, 0]>, fillcolor="#e58139ff"] ;
43 -> 44 ;
45 [label=<gini = 0.0<br/>samples = 1<br/>value = [0, 1]>, fillcolor="#399de5ff"] ;
43 -> 45 ;
46 [label=<gini = 0.0<br/>samples = 5<br/>value = [0, 5]>, fillcolor="#399de5ff"] ;
42 -> 46 ;
}